svm_type c_svc
kernel_type rbf
gamma 0.0555556
nr_class 2
total_sv 23
rho -0.112249
label 0 1
nr_sv 14 9
SV
0.08207256573337487 1:8 5:4 6:4 7:4 8:4 9:4 10:4 11:1 12:5 13:7 14:3 15:2 16:7 17:6 18:1 
0.1983327792358083 1:8 6:4 7:5 8:4 9:4 10:4 11:1 12:5 13:6 14:3 15:2 16:6 17:5 18:1 
0.3503971439054546 1:8 6:4 7:3 8:4 9:4 10:4 11:1 12:5 13:6 14:2 15:2 16:6 17:4 18:1 
0.3774183940246009 1:8 7:4 8:5 9:4 10:4 11:1 12:1 13:4 14:5 15:3 16:2 17:5 18:4 
0.200126742118509 1:8 7:4 8:4 9:4 10:4 11:1 12:1 13:4 14:5 15:2 16:2 17:5 18:4 
0.4941205259834827 1:8 6:4 7:3 8:3 9:3 10:3 11:1 12:1 13:1 14:5 15:6 16:2 17:2 18:6 
0.6586428927747463 1:8 5:4 6:3 7:3 8:3 9:3 10:3 11:1 12:1 13:1 14:6 15:7 16:2 17:2 18:7 
0.7763230265216419 1:8 7:4 8:4 9:4 10:4 11:1 12:4 13:5 14:2 15:2 16:5 17:4 18:1 
1.641556109037297 1:8 7:3 8:2 9:2 10:2 11:1 12:1 13:1 14:3 15:3 16:2 17:2 18:4 
0.292746037587349 1:8 7:4 8:4 9:3 10:3 11:1 12:1 13:1 14:4 15:5 16:3 17:2 18:5 
0.4671386567971558 1:8 6:4 7:5 8:4 9:4 10:4 11:1 12:1 13:5 14:6 15:3 16:2 17:6 18:5 
0.4648826004431889 1:8 5:4 6:5 7:4 8:4 9:4 10:4 11:1 12:6 13:7 14:3 15:2 16:7 17:6 18:1 
0.7016046294062918 1:8 5:4 6:4 7:4 8:4 9:4 10:4 11:1 12:1 13:6 14:7 15:2 16:2 17:7 18:6 
0.2028166520672786 1:8 5:4 6:4 7:4 8:4 9:4 10:4 11:1 12:6 13:7 14:2 15:2 16:7 17:6 18:1 
-0.8179245382136132 1:8 7:1 8:2 9:3 10:1 11:1 12:1 13:2 14:3 15:5 16:1 17:1 18:1 
-0.933932703193089 1:8 5:2 6:3 7:4 8:2 9:2 10:2 11:1 12:1 13:1 14:2 15:3 16:7 17:7 18:1 
-0.3257475120678769 1:8 7:2 8:3 9:4 10:2 11:1 12:1 13:2 14:3 15:5 16:5 17:1 18:1 
-0.7818128847916049 1:8 6:2 7:3 8:4 9:2 10:2 11:1 12:1 13:2 14:3 15:6 16:6 17:1 18:1 
-0.5038999773923327 1:8 7:2 8:3 9:4 10:2 11:1 12:1 13:1 14:2 15:3 16:5 17:5 18:1 
-0.7191926049919412 1:8 7:1 8:2 9:2 10:1 11:1 12:1 13:1 14:2 15:2 16:5 17:1 18:1 
-0.7955912406492036 1:8 5:1 6:2 7:2 8:1 9:1 10:1 11:1 12:1 13:2 14:2 15:7 16:1 17:1 18:1 
-1.28197758265466 1:8 6:2 7:3 8:4 9:2 10:2 11:1 12:1 13:1 14:1 15:2 16:3 17:6 18:6 
-0.7480997116818582 1:8 7:1 8:2 9:2 10:1 11:1 12:1 13:1 14:1 15:2 16:2 17:5 18:1 
